digraph Tree {
node [shape=box, style="filled", color="black"] ;
graph [ranksep=equally, splines=polyline] ;
0 [label="age <= -0.453\nentropy = 0.6\nsamples = 1500\nvalue = [1281, 219]\nclass = nao", fillcolor="#e58139d3"] ;
1 [label="loan <= -0.253\nentropy = 0.963\nsamples = 565\nvalue = [346, 219]\nclass = nao", fillcolor="#e581395e"] ;
0 -> 1 [labeldistance=2.5, labelangle=45, headlabel="True"] ;
2 [label="income <= -1.241\nentropy = 0.284\nsamples = 263\nvalue = [250, 13]\nclass = nao", fillcolor="#e58139f2"] ;
1 -> 2 ;
3 [label="loan <= -0.644\nentropy = 0.722\nsamples = 65\nvalue = [52, 13]\nclass = nao", fillcolor="#e58139bf"] ;
2 -> 3 ;
4 [label="entropy = 0.0\nsamples = 46\nvalue = [46, 0]\nclass = nao", fillcolor="#e58139ff"] ;
3 -> 4 ;
5 [label="loan <= -0.487\nentropy = 0.9\nsamples = 19\nvalue = [6, 13]\nclass = sim", fillcolor="#399de589"] ;
3 -> 5 ;
6 [label="income <= -1.64\nentropy = 0.994\nsamples = 11\nvalue = [6, 5]\nclass = nao", fillcolor="#e581392a"] ;
5 -> 6 ;
7 [label="entropy = 0.0\nsamples = 5\nvalue = [0, 5]\nclass = sim", fillcolor="#399de5ff"] ;
6 -> 7 ;
8 [label="entropy = 0.0\nsamples = 6\nvalue = [6, 0]\nclass = nao", fillcolor="#e58139ff"] ;
6 -> 8 ;
9 [label="entropy = 0.0\nsamples = 8\nvalue = [0, 8]\nclass = sim", fillcolor="#399de5ff"] ;
5 -> 9 ;
10 [label="entropy = 0.0\nsamples = 198\nvalue = [198, 0]\nclass = nao", fillcolor="#e58139ff"] ;
2 -> 10 ;
11 [label="loan <= 1.074\nentropy = 0.902\nsamples = 302\nvalue = [96, 206]\nclass = sim", fillcolor="#399de588"] ;
1 -> 11 ;
12 [label="income <= 0.109\nentropy = 0.993\nsamples = 210\nvalue = [95, 115]\nclass = sim", fillcolor="#399de52c"] ;
11 -> 12 ;
13 [label="loan <= 0.14\nentropy = 0.547\nsamples = 111\nvalue = [14, 97]\nclass = sim", fillcolor="#399de5da"] ;
12 -> 13 ;
14 [label="income <= -0.867\nentropy = 0.918\nsamples = 42\nvalue = [14, 28]\nclass = sim", fillcolor="#399de57f"] ;
13 -> 14 ;
15 [label="entropy = 0.0\nsamples = 27\nvalue = [0, 27]\nclass = sim", fillcolor="#399de5ff"] ;
14 -> 15 ;
16 [label="income <= -0.705\nentropy = 0.353\nsamples = 15\nvalue = [14, 1]\nclass = nao", fillcolor="#e58139ed"] ;
14 -> 16 ;
17 [label="loan <= -0.123\nentropy = 1.0\nsamples = 2\nvalue = [1, 1]\nclass = nao", fillcolor="#e5813900"] ;
16 -> 17 ;
18 [label="entropy = 0.0\nsamples = 1\nvalue = [1, 0]\nclass = nao", fillcolor="#e58139ff"] ;
17 -> 18 ;
19 [label="entropy = 0.0\nsamples = 1\nvalue = [0, 1]\nclass = sim", fillcolor="#399de5ff"] ;
17 -> 19 ;
20 [label="entropy = 0.0\nsamples = 13\nvalue = [13, 0]\nclass = nao", fillcolor="#e58139ff"] ;
16 -> 20 ;
21 [label="entropy = 0.0\nsamples = 69\nvalue = [0, 69]\nclass = sim", fillcolor="#399de5ff"] ;
13 -> 21 ;
22 [label="income <= 0.893\nentropy = 0.684\nsamples = 99\nvalue = [81, 18]\nclass = nao", fillcolor="#e58139c6"] ;
12 -> 22 ;
23 [label="loan <= 0.655\nentropy = 0.96\nsamples = 47\nvalue = [29, 18]\nclass = nao", fillcolor="#e5813961"] ;
22 -> 23 ;
24 [label="loan <= 0.46\nentropy = 0.449\nsamples = 32\nvalue = [29, 3]\nclass = nao", fillcolor="#e58139e5"] ;
23 -> 24 ;
25 [label="entropy = 0.0\nsamples = 24\nvalue = [24, 0]\nclass = nao", fillcolor="#e58139ff"] ;
24 -> 25 ;
26 [label="income <= 0.377\nentropy = 0.954\nsamples = 8\nvalue = [5, 3]\nclass = nao", fillcolor="#e5813966"] ;
24 -> 26 ;
27 [label="entropy = 0.0\nsamples = 3\nvalue = [0, 3]\nclass = sim", fillcolor="#399de5ff"] ;
26 -> 27 ;
28 [label="entropy = 0.0\nsamples = 5\nvalue = [5, 0]\nclass = nao", fillcolor="#e58139ff"] ;
26 -> 28 ;
29 [label="entropy = 0.0\nsamples = 15\nvalue = [0, 15]\nclass = sim", fillcolor="#399de5ff"] ;
23 -> 29 ;
30 [label="entropy = 0.0\nsamples = 52\nvalue = [52, 0]\nclass = nao", fillcolor="#e58139ff"] ;
22 -> 30 ;
31 [label="income <= 1.683\nentropy = 0.087\nsamples = 92\nvalue = [1, 91]\nclass = sim", fillcolor="#399de5fc"] ;
11 -> 31 ;
32 [label="entropy = 0.0\nsamples = 89\nvalue = [0, 89]\nclass = sim", fillcolor="#399de5ff"] ;
31 -> 32 ;
33 [label="loan <= 1.289\nentropy = 0.918\nsamples = 3\nvalue = [1, 2]\nclass = sim", fillcolor="#399de57f"] ;
31 -> 33 ;
34 [label="entropy = 0.0\nsamples = 1\nvalue = [1, 0]\nclass = nao", fillcolor="#e58139ff"] ;
33 -> 34 ;
35 [label="entropy = 0.0\nsamples = 2\nvalue = [0, 2]\nclass = sim", fillcolor="#399de5ff"] ;
33 -> 35 ;
36 [label="entropy = 0.0\nsamples = 935\nvalue = [935, 0]\nclass = nao", fillcolor="#e58139ff"] ;
0 -> 36 [labeldistance=2.5, labelangle=-45, headlabel="False"] ;
{rank=same ; 0} ;
{rank=same ; 1} ;
{rank=same ; 2; 11} ;
{rank=same ; 3; 12; 31} ;
{rank=same ; 5; 13; 22; 33} ;
{rank=same ; 6; 14; 23} ;
{rank=same ; 16; 24} ;
{rank=same ; 17; 26} ;
{rank=same ; 4; 7; 8; 9; 10; 15; 18; 19; 20; 21; 25; 27; 28; 29; 30; 32; 34; 35; 36} ;
}